FANN_FLO_2.1
num_layers=3
learning_rate=0.700000
connection_rate=1.000000
network_type=0
learning_momentum=0.000000
training_algorithm=2
train_error_function=1
train_stop_function=0
cascade_output_change_fraction=0.010000
quickprop_decay=-0.000100
quickprop_mu=1.750000
rprop_increase_factor=1.200000
rprop_decrease_factor=0.500000
rprop_delta_min=0.000000
rprop_delta_max=50.000000
rprop_delta_zero=0.100000
cascade_output_stagnation_epochs=12
cascade_candidate_change_fraction=0.010000
cascade_candidate_stagnation_epochs=12
cascade_max_out_epochs=150
cascade_max_cand_epochs=150
cascade_num_candidate_groups=2
bit_fail_limit=3.49999994039535522461e-01
cascade_candidate_limit=1.00000000000000000000e+03
cascade_weight_multiplier=4.00000005960464477539e-01
cascade_activation_functions_count=10
cascade_activation_functions=3 5 7 8 10 11 14 15 16 17 
cascade_activation_steepnesses_count=4
cascade_activation_steepnesses=2.50000000000000000000e-01 5.00000000000000000000e-01 7.50000000000000000000e-01 1.00000000000000000000e+00 
layer_sizes=3 9 4 
scale_included=0
neurons (num_inputs, activation_function, activation_steepness)=(0, 0, 0.00000000000000000000e+00) (0, 0, 0.00000000000000000000e+00) (0, 0, 0.00000000000000000000e+00) (3, 5, 5.00000000000000000000e-01) (3, 5, 5.00000000000000000000e-01) (3, 5, 5.00000000000000000000e-01) (3, 5, 5.00000000000000000000e-01) (3, 5, 5.00000000000000000000e-01) (3, 5, 5.00000000000000000000e-01) (3, 5, 5.00000000000000000000e-01) (3, 5, 5.00000000000000000000e-01) (0, 5, 0.00000000000000000000e+00) (9, 5, 5.00000000000000000000e-01) (9, 5, 5.00000000000000000000e-01) (9, 5, 5.00000000000000000000e-01) (0, 5, 0.00000000000000000000e+00) 
connections (connected_to_neuron, weight)=(0, -1.27595643997192382812e+01) (1, 1.47257116699218750000e+03) (2, 6.74636993408203125000e+01) (0, -7.74436056613922119141e-01) (1, -9.45968341827392578125e+00) (2, 4.75039720535278320312e+00) (0, -4.75646033883094787598e-02) (1, 4.10426216125488281250e+01) (2, -4.95549249649047851562e+00) (0, 1.49999987792968750000e+03) (1, 3.71573272705078125000e+02) (2, 3.14463043212890625000e+01) (0, 1.97996631264686584473e-01) (1, -1.38387804031372070312e+01) (2, 4.08517408370971679688e+00) (0, 2.55627441406250000000e+00) (1, 1.24133758544921875000e+01) (2, -5.92339420318603515625e+00) (0, -2.15055253356695175171e-02) (1, 6.25152540206909179688e+00) (2, 3.17321348190307617188e+00) (0, 7.74961933493614196777e-02) (1, 6.04141283035278320312e+00) (2, -1.25846934318542480469e+00) (3, 2.52597093582153320312e-01) (4, 2.18319249153137207031e+00) (5, -4.93275976181030273438e+00) (6, 3.21379363536834716797e-01) (7, 9.30283665657043457031e-01) (8, 6.67188644409179687500e-01) (9, 1.10315597057342529297e+00) (10, 4.82934188842773437500e+00) (11, 1.07880568504333496094e+00) (3, -3.18776458501815795898e-01) (4, -9.54228937625885009766e-01) (5, 3.35568332672119140625e+00) (6, 5.23538172245025634766e-01) (7, 2.33977699279785156250e+00) (8, -1.91842567920684814453e+00) (9, -1.23360729217529296875e+00) (10, -2.35327214002609252930e-01) (11, 1.19906711578369140625e+00) (3, -2.04175878316164016724e-02) (4, -9.61919352412223815918e-02) (5, -1.32394552230834960938e-01) (6, 6.79665982723236083984e-01) (7, -3.73605275154113769531e+00) (8, 1.07881486415863037109e+00) (9, 1.97698488831520080566e-01) (10, 1.93888783454895019531e-01) (11, 1.56184792518615722656e+00) 
