FANN_FLO_2.1
num_layers=3
learning_rate=0.700000
connection_rate=1.000000
network_type=0
learning_momentum=0.000000
training_algorithm=2
train_error_function=1
train_stop_function=0
cascade_output_change_fraction=0.010000
quickprop_decay=-0.000100
quickprop_mu=1.750000
rprop_increase_factor=1.200000
rprop_decrease_factor=0.500000
rprop_delta_min=0.000000
rprop_delta_max=50.000000
rprop_delta_zero=0.100000
cascade_output_stagnation_epochs=12
cascade_candidate_change_fraction=0.010000
cascade_candidate_stagnation_epochs=12
cascade_max_out_epochs=150
cascade_max_cand_epochs=150
cascade_num_candidate_groups=2
bit_fail_limit=3.49999994039535522461e-01
cascade_candidate_limit=1.00000000000000000000e+03
cascade_weight_multiplier=4.00000005960464477539e-01
cascade_activation_functions_count=10
cascade_activation_functions=3 5 7 8 10 11 14 15 16 17 
cascade_activation_steepnesses_count=4
cascade_activation_steepnesses=2.50000000000000000000e-01 5.00000000000000000000e-01 7.50000000000000000000e-01 1.00000000000000000000e+00 
layer_sizes=3 9 4 
scale_included=0
neurons (num_inputs, activation_function, activation_steepness)=(0, 0, 0.00000000000000000000e+00) (0, 0, 0.00000000000000000000e+00) (0, 0, 0.00000000000000000000e+00) (3, 5, 5.00000000000000000000e-01) (3, 5, 5.00000000000000000000e-01) (3, 5, 5.00000000000000000000e-01) (3, 5, 5.00000000000000000000e-01) (3, 5, 5.00000000000000000000e-01) (3, 5, 5.00000000000000000000e-01) (3, 5, 5.00000000000000000000e-01) (3, 5, 5.00000000000000000000e-01) (0, 5, 0.00000000000000000000e+00) (9, 5, 5.00000000000000000000e-01) (9, 5, 5.00000000000000000000e-01) (9, 5, 5.00000000000000000000e-01) (0, 5, 0.00000000000000000000e+00) 
connections (connected_to_neuron, weight)=(0, 2.35591850280761718750e+01) (1, -6.07716140747070312500e+01) (2, 4.08475399017333984375e+00) (0, 5.93399722129106521606e-03) (1, 2.22934746742248535156e+00) (2, -4.66834783554077148438e-01) (0, 5.43568134307861328125e-02) (1, 1.29441423416137695312e+01) (2, -2.97246098518371582031e+00) (0, 9.13137614727020263672e-01) (1, 2.66286754608154296875e+00) (2, -4.18502473831176757812e+00) (0, 5.54751418530941009521e-02) (1, 1.68823318481445312500e+01) (2, -1.29675626754760742188e+00) (0, 1.70483618974685668945e-01) (1, -1.60354673862457275391e-01) (2, -1.07752852141857147217e-01) (0, 1.65472328662872314453e+00) (1, -4.63922500610351562500e+01) (2, 1.84095630645751953125e+01) (0, 3.78779888153076171875e+00) (1, 1.13406074047088623047e+00) (2, -7.93312692642211914062e+00) (3, 1.82052874565124511719e+00) (4, 1.81591928005218505859e+00) (5, -4.83510017395019531250e+00) (6, 3.00406670570373535156e+00) (7, 7.90060520172119140625e-01) (8, -3.66556262969970703125e+00) (9, -7.72070586681365966797e-01) (10, -3.31857228279113769531e+00) (11, 3.05811953544616699219e+00) (3, -1.66623830795288085938e+00) (4, -1.73182618618011474609e+00) (5, 6.26978158950805664062e+00) (6, -2.84235978126525878906e+00) (7, -4.60616350173950195312e+00) (8, 1.91491591930389404297e+00) (9, 2.97522044181823730469e+00) (10, 3.27704715728759765625e+00) (11, 1.49047422409057617188e+00) (3, 5.18948249518871307373e-02) (4, 1.65387992858886718750e+01) (5, -4.20144271850585937500e+00) (6, 1.33853599429130554199e-01) (7, 1.49494922161102294922e+00) (8, 8.68182420730590820312e-01) (9, -1.81966328620910644531e+00) (10, -2.34395369887351989746e-01) (11, 1.43626928329467773438e-01) 
