FANN_FLO_2.1
num_layers=3
learning_rate=0.700000
connection_rate=1.000000
network_type=0
learning_momentum=0.000000
training_algorithm=2
train_error_function=1
train_stop_function=0
cascade_output_change_fraction=0.010000
quickprop_decay=-0.000100
quickprop_mu=1.750000
rprop_increase_factor=1.200000
rprop_decrease_factor=0.500000
rprop_delta_min=0.000000
rprop_delta_max=50.000000
rprop_delta_zero=0.100000
cascade_output_stagnation_epochs=12
cascade_candidate_change_fraction=0.010000
cascade_candidate_stagnation_epochs=12
cascade_max_out_epochs=150
cascade_max_cand_epochs=150
cascade_num_candidate_groups=2
bit_fail_limit=3.49999994039535522461e-01
cascade_candidate_limit=1.00000000000000000000e+03
cascade_weight_multiplier=4.00000005960464477539e-01
cascade_activation_functions_count=10
cascade_activation_functions=3 5 7 8 10 11 14 15 16 17 
cascade_activation_steepnesses_count=4
cascade_activation_steepnesses=2.50000000000000000000e-01 5.00000000000000000000e-01 7.50000000000000000000e-01 1.00000000000000000000e+00 
layer_sizes=3 9 4 
scale_included=0
neurons (num_inputs, activation_function, activation_steepness)=(0, 0, 0.00000000000000000000e+00) (0, 0, 0.00000000000000000000e+00) (0, 0, 0.00000000000000000000e+00) (3, 5, 5.00000000000000000000e-01) (3, 5, 5.00000000000000000000e-01) (3, 5, 5.00000000000000000000e-01) (3, 5, 5.00000000000000000000e-01) (3, 5, 5.00000000000000000000e-01) (3, 5, 5.00000000000000000000e-01) (3, 5, 5.00000000000000000000e-01) (3, 5, 5.00000000000000000000e-01) (0, 5, 0.00000000000000000000e+00) (9, 5, 5.00000000000000000000e-01) (9, 5, 5.00000000000000000000e-01) (9, 5, 5.00000000000000000000e-01) (0, 5, 0.00000000000000000000e+00) 
connections (connected_to_neuron, weight)=(0, -3.13691473007202148438e+00) (1, -1.25281750488281250000e+03) (2, 5.42677673339843750000e+02) (0, -1.09910368919372558594e+00) (1, -5.57399230957031250000e+02) (2, 1.94404205322265625000e+02) (0, 2.68702477216720581055e-01) (1, 2.59102046489715576172e-01) (2, -2.20021426677703857422e-01) (0, 1.15878200531005859375e+01) (1, 2.39904479980468750000e+02) (2, -8.60231399536132812500e+01) (0, 2.82414474487304687500e+01) (1, 1.05450057983398437500e+02) (2, -1.97787666320800781250e+01) (0, -3.87472897768020629883e-01) (1, -7.14310109615325927734e-01) (2, 1.11529219150543212891e+00) (0, 4.95286285877227783203e-02) (1, 6.96917819976806640625e+00) (2, -8.62634849548339843750e+00) (0, -1.34704113006591796875e-01) (1, -1.52737609863281250000e+02) (2, 2.67960205078125000000e+01) (3, -6.66612386703491210938e-02) (4, -8.61062780022621154785e-02) (5, 1.85174846649169921875e+01) (6, 1.39653772115707397461e-01) (7, -1.87112927436828613281e-01) (8, 1.36500225067138671875e+01) (9, 1.01385955810546875000e+01) (10, 2.54381418228149414062e+00) (11, 8.59027481079101562500e+00) (3, 1.10894811153411865234e+00) (4, 3.36890983581542968750e+00) (5, 1.17886412143707275391e+00) (6, 1.65669798851013183594e+00) (7, -5.73125004768371582031e-01) (8, 8.43458414077758789062e-01) (9, 1.53218656778335571289e-01) (10, -4.52223539352416992188e+00) (11, -1.21300077438354492188e+00) (3, -1.05707275867462158203e+00) (4, -1.94279932975769042969e+00) (5, -5.67484140396118164062e+00) (6, -7.09511578083038330078e-01) (7, 1.17481207847595214844e+00) (8, -5.07856130599975585938e+00) (9, -1.13253593444824218750e+00) (10, 4.25660945475101470947e-02) (11, 1.89463460445404052734e+00) 
